svm_type c_svc
kernel_type rbf
gamma 0.1
nr_class 2
total_sv 189
rho -0.383225
label 1 0
probA -2.56192
probB 0.18329
nr_sv 95 94
SV
0.4 0:0.65518057 1:0.98481507 2:3.3744697 3:0.94373579 4:0.24729502 5:0.9384826 6:1.4952276 7:0.00034481986 8:0.0004756136 9:0.12506723 
0.4 0:0.63251534 1:0.98417018 2:3.0152134 3:0.96334173 4:0.2781377 5:0.9505554 6:1.448804 7:0.00029167036 8:0.00041319968 9:0.092302699 
0.4 0:0.48789308 1:0.98564079 2:9.3591955 3:0.92980326 4:0.25997396 5:0.92217215 6:1.3251373 7:0.00023655577 8:0.00039171601 9:0.27182903 
0.4 0:0.56729171 1:0.93252217 2:2.0194387 3:0.991068 4:0.46139654 5:0.95073836 6:1.0869721 7:0.00069787249 8:0.00065332743 9:0.30144092 
0.4 0:0.895973 1:0.9886531 2:2.6457086 3:0.99062053 4:0.39369855 5:0.95667462 6:1.2240245 7:0.00053968316 8:0.00054824956 9:0.23593676 
0.4 0:0.54717447 1:0.96621011 2:2.3960912 3:0.98019797 4:0.30431808 5:0.95070159 6:1.3525198 7:0.00030379733 8:0.00043454555 9:0.098346519 
0.4 0:0.67347925 1:0.96418581 2:2.0617645 3:0.99539204 4:0.30972334 5:0.95654288 6:1.096436 7:0.00040250904 8:0.00049111166 9:0.33873933 
0.4 0:0.8924298 1:0.91414445 2:2.5723119 3:0.98664494 4:0.33015727 5:0.94571708 6:1.1038806 7:0.00066530704 8:0.00060828073 9:0.32421035 
0.4 0:0.64626657 1:0.92436285 2:3.6064126 3:0.98241235 4:0.31274991 5:0.95990704 6:1.0723659 7:0.00044482885 8:0.00052765905 9:0.32389519 
0.4 0:0.85451861 1:0.96368817 2:2.5753736 3:0.99110272 4:0.27596253 5:0.97024906 6:0.96779704 7:0.00083720984 8:0.00066846988 9:0.38838016 
0.4 0:0.59175091 1:0.9433969 2:1.9039106 3:0.99976904 4:0.13412156 5:0.96399908 6:1.3504459 7:0.00043750275 8:0.0005605504 9:0.15278056 
0.4 0:0.40535006 1:0.92018552 2:3.5911071 3:0.95516264 4:0.47265361 5:0.96119975 6:1.3928628 7:0.00020547926 8:0.00034340369 9:0.23168335 
0.4 0:0.64701947 1:0.99024957 2:2.811584 3:0.99829651 4:0.26945309 5:0.95220886 6:1.3843928 7:0.00033812514 8:0.00047191567 9:0.11980076 
0.4 0:0.63401591 1:0.98890141 2:2.8241361 3:0.99822864 4:0.26937335 5:0.95824514 6:1.3737428 7:0.00030769043 8:0.00044324635 9:0.12058445 
0.4 0:0.54705435 1:0.99333515 2:3.8270338 3:0.996887 4:0.29996958 5:0.93544981 6:1.3371753 7:0.00033898323 8:0.0004538928 9:0.13004455 
0.4 0:0.76601273 1:0.92491837 2:2.2185233 3:0.98858521 4:0.096339114 5:0.97242633 6:0.95082056 7:0.001007204 8:0.00088805425 9:0.37325929 
0.4 0:0.70358729 1:0.93669468 2:3.3099343 3:0.97644168 4:0.081127675 5:0.9219871 6:1.0436704 7:0.00081318944 8:0.00066127493 9:0.32571612 
0.4 0:0.75420949 1:0.99359376 2:6.6997245 3:0.9799459 4:0.35085243 5:0.94510697 6:1.2747189 7:0.00033116689 8:0.00046879469 9:0.30901795 
0.4 0:0.65154766 1:0.99309055 2:7.462864 3:0.82508683 4:0.52685676 5:0.95008188 6:1.1182778 7:0.00030769904 8:0.00048916258 9:0.3495216 
0.4 0:0.42865515 1:0.966875 2:6.6291797 3:0.83438762 4:0.54059157 5:0.93337324 6:1.2440992 7:0.00049019912 8:0.00065359882 9:0.18916633 
0.4 0:0.55465713 1:0.99663979 2:3.7805257 3:0.95821161 4:0.23065028 5:0.96100429 6:1.4744771 7:0.00019047658 8:0.00030839065 9:0.05191963 
0.4 0:0.85957198 1:0.99980498 2:6.5987037 3:0.77551829 4:0.74935567 5:0.9914649 6:0.026909772 7:0.0022820295 8:0.00073501901 9:0.012791898 
0.4 0:0.48135942 1:0.96130527 2:4.030465 3:0.9516804 4:0.3238552 5:0.96150744 6:1.4387979 7:0.00023846076 8:0.00036686271 9:0.10343345 
0.4 0:0.86635651 1:0.99755587 2:2.687301 3:0.979197 4:0.67861239 5:0.96773548 6:1.1069617 7:0.00049462754 8:0.00067014054 9:0.31342535 
0.4 0:0.97935834 1:0.99813749 2:2.4690732 3:0.99625633 4:0.44294725 5:0.97811129 6:1.0274665 7:0.00083245813 8:0.00090655126 9:0.31965884 
0.4 0:0.40180558 1:0.913513 2:4.5350918 3:0.83821908 4:0.032683486 5:0.95164166 6:0.54171758 7:0.00096296271 8:0.00089163214 9:0.19942449 
0.4 0:0.84258631 1:0.93811047 2:1.8512326 3:0.99797764 4:0.33383496 5:0.9849781 6:1.0970963 7:0.00049565305 8:0.00067236414 9:0.32742796 
0.4 0:0.37185376 1:0.89908642 2:6.083591 3:0.96005469 4:0.17431653 5:0.9276245 6:1.2585029 7:0.00057009336 8:0.00071394869 9:0.2181477 
0.4 0:0.51225305 1:0.96097595 2:5.6422203 3:0.94505857 4:0.52216379 5:0.93578446 6:1.0431224 7:0.0010232579 8:0.00096051283 9:0.37705902 
0.4 0:0.65343509 1:0.9802007 2:7.3330162 3:0.92411888 4:0.78833967 5:0.97342198 6:1.0377657 7:0.00061039375 8:0.0007530832 9:0.25389287 
0.4 0:0.88662776 1:0.93086817 2:5.9292153 3:0.99890109 4:0.061093248 5:0.95930442 6:0.56533486 7:0.00065908784 8:0.00074896346 9:0.14295905 
0.4 0:0.92026701 1:0.99941838 2:2.8464477 3:0.98336367 4:0.65272497 5:0.96071623 6:-0.0033011877 7:0.001859366 8:0.0011533176 9:0.027067633 
0.4 0:0.51461529 1:0.91232747 2:3.1849256 3:0.98808269 4:0.24448935 5:0.91518914 6:1.5080399 7:0.00021186926 8:0.0003339634 9:0.062156291 
0.4 0:0.80401137 1:0.96055815 2:1.8232676 3:0.9938826 4:0.39672544 5:0.97264576 6:1.0546738 7:0.00057663926 8:0.00075762823 9:0.33173907 
0.3503064674041565 0:0.74684771 1:0.97991453 2:0.88228611 3:1 4:0.66666667 5:0.97880455 6:1.0669868 7:0.00068116534 8:0.00080950083 9:0.20900133 
0.4 0:0.52004432 1:0.87981144 2:2.908481 3:0.99696459 4:0.24255967 5:0.9088094 6:1.4990044 7:0.00024793118 8:0.00037292129 9:0.091540552 
0.4 0:0.86135251 1:0.9264064 2:2.7742852 3:0.99734638 4:0.28227505 5:0.97088006 6:1.0987074 7:0.00078861694 8:0.0007116787 9:0.3086064 
0.4 0:0.77375262 1:0.98513434 2:8.2795273 3:0.88407292 4:0.24395626 5:0.96513209 6:1.1043133 7:0.0003681 8:0.00047875583 9:0.30484854 
0.4 0:0.86043181 1:0.97576485 2:4.2183999 3:0.93961827 4:0.47762578 5:0.95768314 6:1.3253081 7:0.00040539374 8:0.00061356891 9:0.23382749 
0.4 0:0.95307956 1:0.97702253 2:5.9329227 3:0.92169625 4:0.38168247 5:0.96854175 6:1.0616973 7:0.0007108426 8:0.00069085907 9:0.3074374 
0.4 0:0.64497503 1:0.98202058 2:1.5376477 3:0.99478195 4:0.49639372 5:0.95416551 6:1.1789667 7:0.00036232022 8:0.00053210313 9:0.36743593 
0.4 0:0.69408592 1:0.95317878 2:7.8797141 3:0.88744294 4:0.1097583 5:0.95618573 6:1.3263746 7:0.00037500582 8:0.0004955434 9:0.23725526 
0.4 0:0.94270258 1:0.96506606 2:7.7154029 3:0.88744294 4:0.034000722 5:0.98382751 6:1.0961966 7:0.00093326569 8:0.0009954834 9:0.31558055 
0.4 0:0.83771126 1:0.92762157 2:8.0886251 3:0.93979458 4:0.27255139 5:0.92602274 6:1.0549255 7:0.00056122426 8:0.00056695104 9:0.31738737 
0.4 0:0.71370254 1:0.95776447 2:1.8869305 3:0.9979598 4:0.52833777 5:0.95734092 6:1.1221324 7:0.00052044449 8:0.00056494346 9:0.29277715 
0.4 0:0.639513 1:0.97455816 2:7.2724041 3:0.92149943 4:0.19601877 5:0.97616441 6:0.90827345 7:0.0008500014 8:0.00063142961 9:0.38934722 
0.01069987345860157 0:0.97186919 1:0.93666264 2:7.7181502 3:0.84576529 4:0.9609868 5:0.98402906 6:0.93886755 7:0.00077631991 8:0.0005720252 9:0.37133336 
0.4 0:0.39475134 1:0.99780779 2:6.2269299 3:0.99540468 4:0.60238806 5:0.94943398 6:1.2748623 7:0.00039999882 8:0.00053333177 9:0.17590699 
0.4 0:0.85028657 1:0.99859437 2:2.4369833 3:0.99716935 4:0.53143666 5:0.94440091 6:1.1308744 7:0.00051162479 8:0.00059491254 9:0.33150046 
0.4 0:0.42291069 1:0.93447043 2:6.4135277 3:0.88648844 4:0.57888698 5:0.96022504 6:1.0706458 7:0.00047368648 8:0.00049861734 9:0.28577292 
0.4 0:0.44319068 1:0.98320631 2:7.342529 3:0.93638429 4:0.37101032 5:0.96137017 6:1.2975014 7:0.00047824953 8:0.00051983644 9:0.17764206 
0.4 0:0.69315464 1:0.98639548 2:1.970113 3:0.99352988 4:0.14941654 5:0.95590691 6:1.0442661 7:0.00064238373 8:0.00073172186 9:0.30755811 
0.4 0:0.92119778 1:0.92915845 2:4.1461222 3:0.95431473 4:0.29173009 5:0.98170921 6:1.2965486 7:0.00057961872 8:0.00072360045 9:0.18632754 
0.4 0:0.65678307 1:0.94276297 2:3.2191908 3:0.94208295 4:0.51217391 5:0.93518005 6:0.96465491 7:0.0012092992 8:0.00099729254 9:0.34172093 
0.4 0:0.72306072 1:0.99168891 2:4.2281283 3:0.95312323 4:0.19876111 5:0.93404936 6:1.0792338 7:0.00091472661 8:0.001106181 9:0.33040957 
0.4 0:0.76937524 1:0.96934167 2:9.4885418 3:0.91514714 4:0.086991651 5:0.98396171 6:1.274546 7:0.0008125032 8:0.001015629 9:0.17008757 
0.4 0:0.9325606 1:0.98425411 2:1.9504183 3:0.99307408 4:0.052719159 5:0.96912053 6:1.0395958 7:0.00043382101 8:0.00059331403 9:0.23678439 
0.4 0:0.89861666 1:0.98733797 2:4.2468206 3:0.97483391 4:0.43434343 5:0.96592248 6:1.1185802 7:0.00040517272 8:0.00049948016 9:0.3133077 
0.4 0:0.917627 1:0.99869668 2:7.9420852 3:0.8856573 4:0.14589504 5:0.97942553 6:0.95636989 7:0.00090476397 8:0.00068934398 9:0.36516155 
0.4 0:0.88369445 1:0.9481875 2:8.0994528 3:0.8856573 4:0.1619959 5:0.98651137 6:0.98867243 7:0.00071917923 8:0.00065021684 9:0.37039063 
0.4 0:0.82365042 1:0.96084953 2:8.8649467 3:0.96592501 4:0.3729673 5:0.98325192 6:1.190959 7:0.00039130752 8:0.00048771661 9:0.27120214 
0.4 0:0.94295393 1:0.94949082 2:0.73506175 3:1 4:0.90060947 5:0.97106427 6:-0.0026947368 7:0.0068493134 8:0.0044965287 9:0.002287987 
0.4 0:0.63684233 1:0.97560443 2:4.3846733 3:0.97207393 4:0.45970009 5:0.97003495 6:1.3806887 7:0.00071793489 8:0.00080997782 9:0.23140829 
0.4 0:0.57813724 1:0.93857634 2:5.1856056 3:0.98517251 4:0.42107209 5:0.97091716 6:1.4710013 7:0.000400002 8:0.0006400032 9:0.16117716 
0.4 0:0.94837753 1:0.98912831 2:2.7183985 3:0.99556124 4:0.54290015 5:0.98803139 6:1.143147 7:0.00043076644 8:0.00055668278 9:0.28971596 
0.4 0:0.39998833 1:0.97957561 2:3.0542985 3:0.97781098 4:0.3100471 5:0.96818857 6:1.2897627 7:0.00036764583 8:0.00047577696 9:0.26831709 
0.4 0:0.96429877 1:0.95524158 2:3.9939418 3:0.98247874 4:0.39236431 5:0.98223229 6:1.2242374 7:0.00057547385 8:0.00073834381 9:0.33800231 
0.4 0:0.91023927 1:0.96540034 2:1.715985 3:1 4:0.44136737 5:0.97533893 6:0.33137818 7:0.053365612 8:0.020451383 9:0.050439552 
0.4 0:0.96659384 1:0.96270587 2:5.8118697 3:0.93340588 4:0.32751058 5:0.97745652 6:1.2553151 7:0.00045714322 8:0.0006008168 9:0.34008452 
0.4 0:0.96742259 1:0.96932239 2:6.7898125 3:0.9680558 4:0.43090452 5:0.97799374 6:1.2312499 7:0.00063265313 8:0.00073594343 9:0.3749482 
0.4 0:0.66477644 1:0.8890266 2:2.9111286 3:0.99316064 4:0.17571753 5:0.96830287 6:-0.56271811 7:0.025902422 8:0.021151093 9:0.22037868 
0.4 0:0.79074381 1:0.99977061 2:2.715079 3:0.99110523 4:0.3610913 5:0.98867844 6:-1.2713205 7:0.00051747919 8:0.00078164689 9:0.27538354 
0.4 0:0.9365459 1:0.80303353 2:6.683896 3:0.90653008 4:0.035485021 5:0.98248754 6:1.1699619 7:0.0011923061 8:0.00099259941 9:0.30311519 
0.4 0:0.8994371 1:0.97859051 2:6.8932344 3:0.95868107 4:0.68512111 5:0.99151576 6:0.45131401 7:0.013279876 8:0.0039314706 9:0.034314909 
0.4 0:0.97099792 1:0.99533153 2:7.3320957 3:0.97771376 4:0.16262976 5:0.98095192 6:-1.0430201 7:0.019288883 8:0.015848889 9:0.22701714 
0.4 0:0.9177136 1:0.99028074 2:3.5000978 3:0.99491673 4:0.34636284 5:0.98811115 6:-1.2370691 7:0.00068589281 8:0.00091452374 9:0.3163401 
0.4 0:0.97981281 1:0.78386081 2:7.9287582 3:0.95584143 4:0.023663453 5:0.9915856 6:1.0247811 7:0.00058536268 8:0.00085662831 9:0.45113437 
0.4 0:0.90430751 1:0.92909587 2:7.0980326 3:0.94562527 4:0.59311809 5:0.98968444 6:0.3333785 7:0.01577498 8:0.0071812443 9:0.013422459 
0.4 0:0.71518675 1:0.99967387 2:7.2939577 3:0.97975455 4:0.14894895 5:0.98059198 6:-1.1360562 7:0.019578938 8:0.015245921 9:0.17586503 
0.4 0:0.68320457 1:0.99603721 2:3.5427648 3:0.99425316 4:0.35275591 5:0.98413432 6:-1.2284728 7:0.00069181237 8:0.00095722466 9:0.30163377 
0.4 0:0.9398623 1:0.79836112 2:7.8981341 3:0.95482303 4:0.024846894 5:0.99018163 6:1.1036384 7:0.00058537286 8:0.00082808843 9:0.43940138 
0.005337762967704036 0:0.97316609 1:0.94445418 2:2.5871529 3:0.99596568 4:0.46318898 5:0.98174567 6:1.2660078 7:0.00047748126 8:0.00063234005 9:0.35109837 
0.4 0:0.61453934 1:0.83104762 2:1.2935106 3:0.99947534 4:0.066002491 5:0.98050439 6:0.35804667 7:0.0018181638 8:0.00095871263 9:0.50702245 
0.4 0:0.97595835 1:0.94223052 2:1.0292611 3:1 4:0.060606061 5:0.97578556 6:0.19036241 7:0.022709081 8:0.03018445 9:0.33438601 
0.4 0:0.97504665 1:0.94755517 2:3.9873852 3:0.98371053 4:0.42460128 5:0.98268192 6:1.2448835 7:0.00045794026 8:0.00062913288 9:0.37397722 
0.4 0:0.6191603 1:0.98328694 2:1.3188325 3:0.99948294 4:0.067929825 5:0.99122948 6:0.30639545 7:0.0030000643 8:0.002363669 9:0.3218194 
0.4 0:0.73884621 1:0.86185398 2:1.5936768 3:1 4:0.78113208 5:0.98389728 6:0.55586975 7:0.0015161499 8:0.0015379854 9:0.59184846 
0.4 0:0.75642906 1:0.93955276 2:3.1589717 3:0.96727407 4:0.063679245 5:0.99118304 6:-1.2658244 7:0.0043513694 8:0.0054872266 9:0.35279279 
0.4 0:0.97575424 1:0.96320523 2:4.9615531 3:0.9446398 4:0.49797667 5:0.98250378 6:1.2887991 7:0.00036666933 8:0.00050984497 9:0.32576577 
0.4 0:0.86248371 1:0.93551141 2:2.7700876 3:0.99347824 4:0.5429372 5:0.9858479 6:1.2120148 7:0.00071428831 8:0.00096546661 9:0.34769547 
0.4 0:0.60855114 1:0.86250509 2:0.77391571 3:1 4:0.56018195 5:0.97496113 6:0.80630588 7:0.0055786304 8:0.0074626115 9:0.26426476 
0.4 0:0.59004242 1:0.97009741 2:3.1073645 3:0.99742722 4:0.24793966 5:0.97941323 6:0.96593262 7:0.0018437747 8:0.0020045638 9:0.42131476 
0.4 0:0.93212945 1:0.9768661 2:4.5880439 3:0.98990674 4:0.36910902 5:0.98135099 6:1.265977 7:0.00049288437 8:0.00062136133 9:0.31138036 
0.4 0:0.85195268 1:0.96398753 2:2.4890957 3:0.95946036 4:0.57601626 5:0.97102653 6:-0.13150967 7:0.064065758 8:0.016948412 9:0 
0.4 0:0.30297479 1:0.95209697 2:7.5228699 3:0.89731034 4:0.1818998 5:0.94664133 6:1.1910846 7:0.00082539282 8:0.00091710313 9:0.3122148 
-0.4 0:0.93349474 1:0.99901393 2:1.4324344 3:0.99947003 4:0.00088811687 5:0.99528095 6:0.14323096 7:0.00084210854 8:0.001063716 9:0.072915522 
-0.4 0:0.93349474 1:0.99901393 2:2.1789588 3:0.99947003 4:0.00028080166 5:0.99480014 6:0.17641826 7:0.00041027405 8:0.00054703207 9:0.092712743 
-0.4 0:0.42214654 1:0.9118677 2:1.1891024 3:0.97924765 4:0.012131606 5:0.97700289 6:1.3839313 7:0.00033802676 8:0.00047133308 9:0.17927555 
-0.4 0:0.41381983 1:0.87918094 2:5.621871 3:0.95688972 4:0.0068508792 5:0.96866407 6:0.67162087 7:0.0019473653 8:0.0016232544 9:0.33727231 
-0.4 0:0.36234127 1:0.80887076 2:4.9486106 3:0.85231444 4:0.0033347584 5:0.93739035 6:0.70012964 7:0.0010000105 8:0.00078574629 9:0.3285264 
-0.4 0:0.86725652 1:0.88468771 2:5.8460177 3:0.85231444 4:0.010517315 5:0.98208824 6:0.89665454 7:0.00062502176 8:0.00078127719 9:0.41946374 
-0.4 0:0.42011446 1:0.97277859 2:4.3683393 3:0.953951 4:0.0067550235 5:0.97733758 6:0.6909105 7:0.0013529343 8:0.001186838 9:0.37150604 
-0.4 0:0.59855329 1:0.86869982 2:7.1114675 3:0.85231444 4:0.0038477982 5:0.95645458 6:0.31478074 7:0.0057407706 8:0.0061179996 9:0.20316024 
-0.4 0:0.6223693 1:0.9184776 2:6.4025424 3:0.78877093 4:0.03456027 5:0.95324645 6:0.75978522 7:0.00043477442 8:0.0005292906 9:0.15126298 
-0.4 0:0.8031379 1:0.96911691 2:4.4351263 3:0.94345049 4:0.022979985 5:0.92393779 6:0.59270303 7:0.00079544972 8:0.00061466569 9:0.23927718 
-0.4 0:0.76489897 1:0.98201886 2:3.2631894 3:0.98577215 4:0.0066834228 5:0.9840449 6:0.65323095 7:0.00070909316 8:0.00074777097 9:0.28239249 
-0.4 0:0.5573045 1:0.98059056 2:3.039196 3:0.98328441 4:0.021320638 5:0.98048068 6:0.73367644 7:0.0004473658 8:0.00054154807 9:0.16736824 
-0.4 0:0.42348951 1:0.87954613 2:2.0365777 3:1 4:0.0081320258 5:0.97334512 6:0.62440842 7:0.0012727163 8:0.0010248295 9:0.22938734 
-0.4 0:0.71547578 1:0.86786588 2:9.2321207 3:0.87809366 4:0.0037199125 5:0.97528247 6:0.86121852 7:0.00074998289 8:0.00065623503 9:0.25346966 
-0.4 0:0.77178905 1:0.98469765 2:1.8809319 3:1 4:0.011174513 5:0.96492123 6:0.56054006 7:0.0013703814 8:0.0013552999 9:0.24021368 
-0.4 0:0.83941939 1:0.9672612 2:8.5967361 3:0.84418608 4:0.0038115319 5:0.97940637 6:0.90092307 7:0.0011817542 8:0.00080994437 9:0.24848693 
-0.4 0:0.61257826 1:0.9359736 2:3.3299086 3:0.93072901 4:0.023762376 5:0.95941406 6:0.7647558 7:0.00048147528 8:0.0004993077 9:0.27133205 
-0.4 0:0.68668119 1:0.97559103 2:3.22901 3:0.88789192 4:0.016171617 5:0.97558204 6:0.99839075 7:0.00033333898 8:0.00044445197 9:0.24310358 
-0.4 0:0.92567735 1:0.9658406 2:2.5468566 3:0.90268065 4:0.0043574922 5:0.95006222 6:0.65248714 7:0.0007419317 8:0.00052653217 9:0.29510225 
-0.4 0:0.35867043 1:0.98540657 2:2.7909227 3:0.96153049 4:0.01120498 5:0.97274413 6:0.60214035 7:0.0018222186 8:0.0016898822 9:0.31830409 
-0.4 0:0.78167354 1:0.94514344 2:3.3786563 3:0.98138354 4:0.02948886 5:0.93209441 6:0.84562155 7:0.00059998989 8:0.00067198868 9:0.20623121 
-0.4 0:0.36360783 1:0.94277468 2:2.9108222 3:0.95774532 4:0.0099735216 5:0.9757084 6:0.49823152 7:0.0013777826 8:0.0011703668 9:0.40393403 
-0.4 0:0.74121534 1:0.94507711 2:2.7658481 3:0.93991013 4:0.0035929409 5:0.97955274 6:0.22437589 7:0.00099999189 8:0.00095999222 9:0.4811852 
-0.4 0:0.65522875 1:0.99558862 2:6.8849979 3:0.90902148 4:0.011205847 5:0.94315933 6:0.56994832 7:0.0023199916 8:0.0012927866 9:0.26325246 
-0.4 0:0.74163098 1:0.94245006 2:3.7920974 3:0.91540894 4:0.0038535645 5:0.9765526 6:0.46362915 7:0.00033335112 8:0.00044446816 9:0.22329761 
-0.4 0:0.88999026 1:0.95996555 2:3.5779858 3:0.99707824 4:0.28481432 5:0.97637807 6:0.97489597 7:0.00072221813 8:0.00080246459 9:0.39131471 
-0.4 0:0.8148508 1:0.93949172 2:5.2909582 3:0.81323608 4:0.023541114 5:0.96851589 6:0.70656189 7:0.0012222241 8:0.0014979391 9:0.35818499 
-0.4 0:0.48403088 1:0.94335953 2:2.7989007 3:0.98667031 4:0.27045301 5:0.94971314 6:1.083211 7:0.00059321674 8:0.0005228351 9:0.27351399 
-0.4 0:0.72765706 1:0.9357852 2:2.4829541 3:0.91470102 4:0.012846518 5:0.97257406 6:0.812191 7:0.00016666121 8:0.00027776868 9:0.043844983 
-0.4 0:0.82251638 1:0.98822368 2:3.5327984 3:0.93665526 4:0.84210526 5:0.98864439 6:-0.0022350265 7:0.010725018 8:0.0046349835 9:0.00053552919 
-0.4 0:0.44003667 1:0.87914474 2:3.2100821 3:0.91829246 4:0.0475 5:0.96412322 6:1.1353183 7:0.00045455586 8:0.00049587912 9:0.060086184 
-0.2969690090439135 0:0.76680016 1:0.94531536 2:6.0065882 3:0.86413879 4:0.45296392 5:0.98444491 6:0.027260372 7:0.0020000935 8:0 9:0.0026687003 
-0.4 0:0.010886889 1:0.99818654 2:6.3395138 3:0.98948106 4:0.00017692265 5:0.98701428 6:0.31715313 7:0.00053332647 8:0.00078221215 9:0.70401236 
-0.4 0:0.84048979 1:0.87589833 2:3.3578636 3:0.97650387 4:0.013527795 5:0.98171289 6:1.6223774 7:0.00028571401 8:0.00040816288 9:0.32848335 
-0.4 0:0.5742793 1:0.91106886 2:3.9744846 3:0.92803681 4:0.048162231 5:0.97916521 6:1.5237686 7:0 8:0 9:0 
-0.4 0:0.45418568 1:0.93772547 2:8.3460777 3:0.88407292 4:0.0081251881 5:0.93866129 6:0.98220759 7:0 8:0 9:0.44107977 
-0.4 0:0.52435135 1:0.98868093 2:7.1914638 3:0.85689471 4:0.028784648 5:0.9762261 6:1.4573056 7:0.00052272596 8:0.00061776705 9:0.28933457 
-0.4 0:0.58794181 1:0.92285981 2:0.95549746 3:1 4:0.033305921 5:0.95250296 6:-0.38540854 7:0.00046807654 8:0.00051787192 9:0.27248567 
-0.4 0:0.74092484 1:0.86675781 2:2.1483607 3:0.99741872 4:0.88246269 5:0.96906106 6:-1.043401 7:0.0007469139 8:0.00082068317 9:0.3022589 
-0.4 0:0.95357792 1:0.94378578 2:3.2261424 3:0.98498748 4:0.9038055 5:0.98625927 6:-0.13782874 7:0.024444416 8:0.015489701 9:0.15298684 
-0.4 0:0.52137818 1:0.97792045 2:5.6000151 3:0.88761413 4:0.026955603 5:0.97472719 6:0.55075522 7:0.0010394846 8:0.00071814995 9:0.20701741 
-0.4 0:0.65750836 1:0.99910208 2:2.3067413 3:0.99228538 4:0.010288481 5:0.93197798 6:1.5832311 7:0 8:0 9:0 
-0.4 0:0.91121683 1:0.95037474 2:2.6744784 3:0.98387417 4:0.032818533 5:0.98048789 6:0.52520957 7:0.00063637015 8:0.0006281056 9:0.15308527 
-0.4 0:0.61130559 1:0.95144928 2:6.2994781 3:0.88974031 4:0.030144928 5:0.9484865 6:0.53570574 7:0.00080001354 8:0.00067556699 9:0.25478018 
-0.4 0:0.80400464 1:0.96488961 2:1.3677968 3:0.99552059 4:0.74493574 5:0.98302289 6:-0.95633254 7:0.0099176456 8:0.014370106 9:0.46415175 
-0.4 0:0.76465743 1:0.96171858 2:6.2271923 3:0.85075983 4:0.022653017 5:0.97673269 6:1.3960207 7:0.00020000935 8:0.00032001495 9:0.095128787 
-0.4 0:0.56949997 1:0.93113856 2:3.6049226 3:0.85075983 4:0.0091483337 5:0.99319247 6:0.65994117 7:0.001263151 8:0.0010415487 9:0.47245632 
-0.4 0:0.93564955 1:0.95254478 2:4.7834834 3:0.90938839 4:0.0059819528 5:0.96058871 6:1.1626295 7:0.00042856591 8:0.00048978961 9:0.28618209 
-0.4 0:0.52535698 1:0.88298738 2:6.3744933 3:0.90086979 4:0.025925926 5:0.96044576 6:0.63199926 7:0.00054545565 8:0.00064462941 9:0.26594998 
-0.4 0:0.85864555 1:0.9009668 2:6.1887373 3:0.8640807 4:0.012869467 5:0.97086229 6:1.2289117 7:0.00041668117 8:0.00055557489 9:0.18092565 
-0.4 0:0.5796894 1:0.94864737 2:2.0402008 3:0.99911275 4:0.0027408303 5:0.94561919 6:0.61948401 7:0.00064705751 8:0.0006089953 9:0.26758359 
-0.4 0:0.38005306 1:0.98871159 2:7.5421849 3:0.93638429 4:0.40196784 5:0.96526197 6:0.16871539 7:0.035436382 8:0.023525981 9:0.084061204 
-0.4 0:0.76730661 1:0.98037983 2:10.092321 3:0.91222494 4:0.0053442314 5:0.97909447 6:0.35615697 7:0.00023529459 8:0.00035986232 9:0.21160447 
-0.4 0:0.51722154 1:0.99734616 2:2.9711559 3:0.98579018 4:0.54644809 5:0.96360094 6:0.17285108 7:0.034083334 8:0.023251989 9:0.094615373 
-0.4 0:0.93388679 1:0.84061207 2:1.3483024 3:1 4:0.019781364 5:0.97374175 6:0.037470912 7:0.004560014 8:0.0044496104 9:0.12886728 
-0.4 0:0.87603192 1:0.98092081 2:2.5501743 3:0.95977846 4:0.013033478 5:0.95790349 6:0.64768649 7:0.0004482778 8:0.00051010922 9:0.10427755 
-0.4 0:0.8476215 1:0.94025087 2:3.4280965 3:0.93282671 4:0.017702187 5:0.97770447 6:0.7924528 7:0.00015384761 8:0.0002603575 9:0.074312921 
-0.4 0:0.57356449 1:0.9960395 2:7.5188963 3:0.97855176 4:0.00052157067 5:0.9963802 6:0.09608388 7:0.00080391589 8:0.00078815284 9:0.10253046 
-0.4 0:0.50209595 1:0.98691012 2:2.5306079 3:0.97442167 4:0.018327894 5:0.93501743 6:0.78130299 7:0.00033783349 8:0.00044740111 9:0.097931594 
-0.4 0:0.73122992 1:0.93345152 2:3.1494411 3:0.91923851 4:0.033921933 5:0.95119945 6:0.68837593 7:0.00029166291 8:0.00041318912 9:0.096381816 
-0.4 0:0.77412749 1:0.72194391 2:6.4932327 3:0.9846088 4:0.00029754314 5:0.98875667 6:0.44615422 7:0.0034782394 8:0.0038828061 9:0.37580076 
-0.4 0:0.86889679 1:0.75898251 2:1.6583406 3:1 4:0.01391097 5:0.98007738 6:0.52039105 7:0.00074999531 8:0.00099999375 9:0.23993243 
-0.4 0:0.86957095 1:0.73708825 2:8.9302497 3:0.91285484 4:0.023841655 5:0.9805859 6:-0.10030066 7:0.007846172 8:0.0050532352 9:0.096436466 
-0.4 0:0.95714983 1:0.99584773 2:7.5998165 3:0.98100042 4:0.00025676578 5:0.99529088 6:0.30915172 7:0.00038888719 8:0.00051851626 9:0.11521257 
-0.4 0:0.91229816 1:0.99584773 2:7.1897625 3:0.98100042 4:0.00041816141 5:0.99306041 6:0.094251406 7:0.00052380278 8:0.00069840371 9:0.034180748 
-0.339371823141427 0:0.80983786 1:0.88038278 2:4.1836714 3:0.84065751 4:0.057575758 5:0.98173171 6:0.42268842 7:0.0011764695 8:0.0012456736 9:0.32032406 
-0.4 0:0.97198698 1:0.99111082 2:7.0043822 3:0.97934928 4:0.00046215059 5:0.99318126 6:0.13788453 7:0.00073911314 8:0.00096406062 9:0.044342503 
-0.4 0:0.86219172 1:0.98069529 2:0.49731639 3:1 4:0.17126578 5:0.98096466 6:0.78677019 7:0.0073999985 8:0.0071607768 9:0.19673331 
-0.4 0:0.82694207 1:0.9063313 2:6.9953982 3:1 4:0.0046922132 5:0.98903797 6:0.21278703 7:0.001689654 8:0.0011010621 9:0.14438627 
-0.4 0:0.84708931 1:0.95331325 2:1.597458 3:1 4:0.01746988 5:0.98953487 6:-0.10806992 7:0.0050967759 8:0.0042018414 9:0.11389979 
-0.4 0:0.98764102 1:0.94840059 2:6.979171 3:0.94562527 4:0.28875494 5:0.98915494 6:0.00088116738 7:0.0087719394 8:0.0045787691 9:0.00049702005 
-0.4 0:0.93817347 1:0.97723542 2:3.6624596 3:0.94562527 4:0.0079110944 5:0.98228544 6:0.43236392 7:0.013600006 8:0.0044666582 9:0.045609466 
-0.4 0:0.92529329 1:0.76562172 2:6.9888926 3:0.94562527 4:0.0065925786 5:0.99214244 6:0.12872523 7:0.0077727058 8:0.0074896335 9:0.37661658 
-0.4 0:0.95750527 1:0.99401211 2:8.1972468 3:0.96788308 4:0.00027425437 5:0.99468093 6:0.15996493 7:0.00052173241 8:0.00068052054 9:0.077341694 
-0.4 0:0.78365175 1:0.86712986 2:2.8058929 3:0.96580305 4:0.012580645 5:0.98952085 6:0.32682501 7:0.0011333187 8:0.00069332441 9:0.47431229 
-0.4 0:0.94998102 1:0.80958706 2:2.7493223 3:0.94527195 4:0.017124831 5:0.97463464 6:0.76160414 7:0.00085714034 8:0.00097958896 9:0.32324999 
-0.4 0:0.57682426 1:0.90380018 2:5.8641161 3:0.99952049 4:0.022939577 5:0.98940118 6:0.6782281 7:0.00075229647 8:0.00073159106 9:0.21903423 
-0.4 0:0.41413589 1:0.99775382 2:4.0619701 3:0.99947534 4:0.088050314 5:0.97091298 6:0.63753673 7:0.00053333441 8:0.0006400013 9:0.63695973 
-0.4 0:0.98813708 1:0.99384584 2:7.8255302 3:0.97065109 4:0.00029895802 5:0.99539773 6:-0.092586076 7:0.00041463608 8:0.00058655835 9:0.10550029 
-0.4 0:0.94352828 1:0.97695529 2:2.2025816 3:1 4:0.0043508772 5:0.99273292 6:0.69309284 7:0.0019999146 8:0 9:0 
-0.4 0:0.91076049 1:0.94970665 2:2.0514227 3:0.98656331 4:0.50398583 5:0.98524435 6:1.2290982 7:0.00062857185 8:0.00088000059 9:0.28083307 
-0.4 0:0.50734373 1:0.80735164 2:1.7361716 3:0.96864741 4:0.015943313 5:0.99210797 6:0.081355654 7:0.0036086984 8:0.0015198988 9:0.21696558 
-0.4 0:0.40213132 1:0.93824129 2:2.4654995 3:0.99998536 4:0.0036299766 5:0.98573779 6:0.53987404 7:0.0015600228 8:0.0013471926 9:0.26559527 
-0.4 0:0.29344278 1:0.8729074 2:3.7032172 3:0.99948294 4:0.080578512 5:0.97330656 6:0.58038435 7:0.00016665459 8:0.00027775764 9:0.63941406 
-0.4 0:1 1:0.81608739 2:2.3552398 3:1 4:0.21509434 5:0.98969639 6:0.58903218 7:0.0038064488 8:0.003906358 9:0.30963364 
-0.4 0:0.99592975 1:0.99810754 2:7.223073 3:0.98400353 4:0.00039399322 5:0.99506518 6:0.1087302 7:0.0006444388 8:0.00065875966 9:0.11591659 
-0.4 0:0.93659362 1:0.9759484 2:3.5678798 3:0.97753093 4:0.68939938 5:0.98219589 6:1.2858686 7:0.00036040508 8:0.00050859194 9:0.32805467 
-0.4 0:0.37904619 1:0.75026049 2:2.7990078 3:0.98685744 4:0.10021786 5:0.94349466 6:1.1136252 7:0.00080001354 8:0.0010666847 9:0.48888947 
-0.4 0:0.87685588 1:0.8025127 2:3.4290182 3:0.93794076 4:0.14935065 5:0.98192983 6:0.67349001 7:0.0014285701 8:0.0016326515 9:0.23478711 
-0.4 0:0.98766707 1:0.99751668 2:7.6593347 3:0.97659944 4:0.00051222533 5:0.99617884 6:0.015130557 7:0.00035897432 8:0.00046022349 9:0.0060988279 
-0.2732388663668642 0:0.53966681 1:0.93950118 2:2.0010559 3:0.99730934 4:0.39633421 5:0.97693547 6:-0.42204085 7:0.021359997 8:0.023116792 9:0.091325572 
-0.4 0:0.58590841 1:0.99527887 2:7.3090023 3:0.97488997 4:0.00054759244 5:0.99508418 6:0.15637339 7:0.00080000758 8:0.00074667374 9:0.050082466 
-0.4 0:0.61145902 1:0.87814434 2:1.4429927 3:1 4:0.011451176 5:0.97094946 6:0.45728288 7:0.0010869477 8:0.00099053748 9:0.33914237 
-0.2567644052782573 0:0.87415912 1:0.99672582 2:7.3290113 3:0.97825984 4:0.00047832707 5:0.99507074 6:0.028202575 7:0.00089363215 8:0.0008746187 9:0.062192101 
