svm_type c_svc
kernel_type rbf
gamma 0.1
nr_class 2
total_sv 118
rho -0.304472
label 0 1
probA -2.43348
probB 0.0208653
nr_sv 57 61
SV
1 1:-0.0623744 2:1 3:-0.161669 4:0.70043 5:-0.974501 6:0.53966 7:0.0718061 8:-0.964797 9:-0.968021 10:0.0811317 
1 1:0.533852 2:-0.0689502 3:0.5931 4:0.157628 5:-0.989553 6:0.716442 7:-0.0595062 8:-0.489791 9:-0.635976 10:-0.977853 
1 1:-0.714004 2:0.0904296 3:0.443695 4:0.408957 5:-0.993955 6:0.649326 7:-0.109661 8:-0.907533 9:-0.877149 10:0.213357 
1 1:0.697442 2:0.054334 3:0.122824 4:0.415535 5:-0.928068 6:0.764933 7:-0.497688 8:-0.772119 9:-0.739907 10:-0.515331 
1 1:0.338126 2:0.801729 3:0.126059 4:0.940204 5:-0.917824 6:0.732498 7:0.0333105 8:-0.143863 9:-0.172552 10:-0.958951 
1 1:0.805515 2:0.88002 3:0.0789218 4:-0.389222 5:-0.999797 6:0.802505 7:-0.478857 8:-0.971838 9:-0.966955 10:0.526155 
1 1:0.519174 2:0.911731 3:0.495158 4:0.928987 5:-0.999838 6:0.907514 7:-0.644505 8:-0.983807 9:-0.982945 10:0.248573 
1 1:0.435817 2:-0.586299 3:0.118485 4:-0.206629 5:-0.97016 6:0.848748 7:-0.334604 8:-0.360479 9:-0.315923 10:-0.955738 
1 1:0.668523 2:0.828038 3:0.633274 4:0.930421 5:-1 6:0.722383 7:-0.643677 8:-0.947195 9:-0.92565 10:-0.305593 
1 1:-0.0285629 2:-0.142857 3:0.524979 4:0.618116 5:-0.999696 6:0.868337 7:-0.173624 8:-0.989908 9:-0.983744 10:-0.765464 
1 1:-0.14796 2:0.447827 3:-0.300771 4:0.701442 5:-0.987504 6:0.84955 7:-0.161224 8:-0.563717 9:-0.456362 10:-0.637075 
1 1:0.219051 2:0.366675 3:0.921957 4:0.237666 5:-0.979045 6:0.0268144 7:0.34022 8:-0.943675 9:-0.968554 10:-0.231012 
0.9027463392434772 1:0.0101182 2:0.508706 3:-0.612154 4:-0.339209 5:-0.999594 6:0.889371 7:-0.635564 8:-0.984276 9:-0.979747 10:0.88047 
1 1:-0.0483399 2:-0.198271 3:-0.317896 4:-0.372101 5:-0.989878 6:0.242293 7:0.027608 8:0.145271 9:-0.0390406 10:-0.981721 
0.2670227510016709 1:-0.0602612 2:0.551157 3:0.25114 4:0.689044 5:-0.969734 6:0.106294 7:0.0329499 8:0.0776813 9:-0.0702199 10:-0.971396 
1 1:-0.28989 2:0.880211 3:0.00904499 4:-0.13958 5:-0.996085 6:0.855652 7:0.0456571 8:-0.0574982 9:-0.238641 10:-0.973174 
1 1:0.460739 2:-0.547217 3:-0.499833 4:0.846251 5:-0.999817 6:0.867213 7:-0.483725 8:-0.929594 9:-0.914724 10:0.123522 
1 1:0.692205 2:0.68391 3:-0.522255 4:0.910348 5:0.855264 6:0.305234 7:-0.75282 8:-0.986153 9:-0.980546 10:0.0264512 
0.7040104836411359 1:0.505277 2:-0.252669 3:-0.524605 4:0.978241 5:0.087562 6:0.516378 7:-0.673966 8:-0.906829 9:-0.840373 10:0.133816 
0.977558201880516 1:0.442754 2:1 3:-0.670099 4:0.811335 5:0.154118 6:0.625241 7:-0.666174 8:-0.869045 9:-0.784677 10:0.261767 
1 1:0.879914 2:0.68124 3:-0.822283 4:0.987518 5:0.674379 6:0.618176 7:-0.610704 8:-0.7456 9:-0.574684 10:0.155495 
1 1:0.626029 2:0.837633 3:-0.440495 4:0.968963 5:-0.517755 6:0.293513 7:-0.280644 8:-0.398498 9:-0.356429 10:-0.950217 
1 1:0.341296 2:0.93696 3:-0.210305 4:0.622923 5:-0.987829 6:0.811015 7:-0.14242 8:-0.863647 9:-0.850233 10:-0.504476 
1 1:0.30544 2:0.283363 3:-0.209905 4:0.546597 5:-0.983427 6:0.652858 7:0.22474 8:-0.899319 9:-0.889141 10:-0.489909 
1 1:0.785302 2:0.0455643 3:-0.473677 4:0.897782 5:-0.0242918 6:0.711785 7:-1 8:-0.989908 9:-0.983744 10:-0.404348 
1 1:0.434002 2:0.656266 3:-0.432152 4:0.977819 5:0.805585 6:0.566956 7:-0.731913 8:-0.983337 9:-0.978148 10:-0.0715244 
1 1:0.918986 2:0.919865 3:-0.454321 4:0.870878 5:0.813252 6:0.782274 7:-0.0492096 8:-0.404365 9:-0.600799 10:-0.612371 
1 1:-0.155379 2:-0.421581 3:0.244437 4:0.658177 5:-0.981845 6:-0.0419075 7:0.225902 8:-0.936635 9:-0.952032 10:-0.315793 
1 1:0.64429 2:0.526055 3:-0.321714 4:0.101206 5:-0.994645 6:0.893545 7:-0.522461 8:-0.815771 9:-0.719121 10:-0.0583611 
1 1:0.837833 2:-0.701322 3:0.0257317 4:0.355065 5:-0.999452 6:0.959859 7:-0.629154 8:-0.987562 9:-0.982678 10:0.0297576 
1 1:-0.394241 2:1 3:-0.540373 4:0.462596 5:-0.193756 6:0.453115 7:0.0571557 8:-0.153016 9:-0.376416 10:-0.759787 
1 1:0.355262 2:1 3:-0.509009 4:0.900396 5:-0.444585 6:0.421002 7:-0.0495301 8:-0.0455292 9:-0.396402 10:-0.961134 
1 1:0.238966 2:1 3:-0.503117 4:0.552248 5:-0.678294 6:0.819043 7:-0.878043 8:-0.986858 9:-0.983744 10:-0.31467 
1 1:-0.14796 2:0.333503 3:-0.300771 4:0.701442 5:-0.987504 6:0.84955 7:-0.161224 8:-0.563717 9:-0.456362 10:-0.637075 
1 1:0.316052 2:0.791815 3:-0.215089 4:0.620562 5:-0.914456 6:0.932241 7:-0.347639 8:-0.386764 9:-0.420653 10:-0.958046 
1 1:0.145869 2:0.649085 3:-0.259452 4:0.267015 5:-0.989533 6:0.803629 7:-0.0135653 8:-0.352734 9:-0.340706 10:-0.937958 
1 1:0.672313 2:-0.138409 3:-0.0293772 4:0.728346 5:-0.983792 6:0.826108 7:-0.119804 8:-0.393335 9:-0.311126 10:-0.932624 
1 1:0.77678 2:0.529232 3:-0.0386039 4:0.147255 5:-0.969937 6:0.986191 7:-0.631831 8:-0.917156 9:-0.901666 10:0.181072 
1 1:-0.148557 2:0.899085 3:-0.148636 4:0.225605 5:-0.99576 6:0.720135 7:-0.630883 8:-0.979582 9:-0.969354 10:0.0553355 
1 1:0.34024 2:1 3:-0.672398 4:0.715358 5:-0.923037 6:0.410565 7:0.157531 8:-0.918564 9:-0.900866 10:0.903366 
1 1:0.665721 2:1 3:0.292519 4:0.268955 5:-0.955048 6:0.674374 7:-0.135576 8:-0.832903 9:-0.86489 10:-0.59771 
1 1:0.641075 2:0.732016 3:0.350219 4:0.693177 5:-0.999229 6:0.792068 7:-0.55048 8:-0.959165 9:-0.956829 10:-0.191615 
1 1:0.798027 2:-0.376779 3:-0.51668 4:-0.417138 5:-0.999229 6:0.873956 7:-0.403476 8:-0.948134 9:-0.958694 10:-0.0517483 
1 1:0.710627 2:1 3:-0.459701 4:0.897276 5:-0.97018 6:0.941394 7:-0.0117623 8:-0.788313 9:-0.882745 10:-0.921239 
1 1:0.864754 2:0.744471 3:-0.487865 4:0.950156 5:-0.940401 6:0.870906 7:-0.364266 8:-0.514199 9:-0.408661 10:-0.846346 
0.5614462098657457 1:-0.397296 2:0.723945 3:1 4:0.800793 5:-0.999635 6:0.858221 7:-0.548183 8:-0.975827 9:-0.975217 10:-0.472504 
1 1:0.726109 2:1 3:-0.738585 4:0.541705 5:-0.981966 6:0.828677 7:0.0105137 8:-0.831026 9:-0.833444 10:-0.636046 
1 1:0.833217 2:0.913129 3:0.294336 4:0.773889 5:-0.907539 6:0.828035 7:-0.807008 8:-0.983337 9:-0.979747 10:0.0104183 
1 1:0.148052 2:0.900547 3:-0.408422 4:0.99553 5:-0.866806 6:0.722543 7:0.209689 8:-0.957287 9:-0.974417 10:0.704295 
1 1:0.920846 2:0.910206 3:0.379869 4:1 5:-0.837392 6:0.885999 7:-0.0367561 8:-0.363999 9:-0.280746 10:-0.742787 
1 1:0.583627 2:0.601296 3:-0.172783 4:1 5:-0.988985 6:0.581567 7:-0.474831 8:-0.983572 9:-0.981346 10:-0.700583 
1 1:0.81213 2:0.77453 3:0.29906 4:0.791684 5:-0.911576 6:0.835581 7:-0.794247 8:-0.976531 9:-0.965889 10:0.159394 
1 1:0.0382102 2:0.690201 3:0.19456 4:0.799443 5:-0.999797 6:0.944766 7:-0.427408 8:-0.944379 9:-0.955496 10:0.42166 
1 1:0.267977 2:0.81698 3:-0.450567 4:0.995952 5:-0.851166 6:0.611432 7:0.0334775 8:-0.9479 9:-0.954697 10:0.703203 
1 1:0.597317 2:-0.382944 3:0.32823 4:0.840854 5:-0.900399 6:0.90912 7:-0.545565 8:-0.965266 9:-0.963491 10:0.37562 
1 1:0.308702 2:0.995615 3:-0.0357848 4:0.752636 5:-0.968639 6:0.830122 7:-0.530468 8:-0.911288 9:-0.867821 10:-0.0809133 
1 1:0.753787 2:-0.56482 3:-0.709079 4:0.795732 5:-0.934417 6:0.455202 7:0.109267 8:-0.772354 9:-0.85956 10:-0.762001 
-1 1:0.783878 2:-0.0656457 3:-0.321763 4:0.667285 5:-0.986125 6:0.785645 7:-0.168743 8:-0.69256 9:-0.883811 10:-0.986525 
-1 1:0.837466 2:0.886375 3:-0.233847 4:0.677827 5:-0.97225 6:0.805395 7:-0.156176 8:-0.735273 9:-0.760426 10:-0.804985 
-1 1:0.607102 2:0.349835 3:0.0931296 4:-0.187484 5:-0.971377 6:0.772158 7:-0.34653 8:-0.743722 9:-0.776949 10:-0.580804 
-0.1306022239016031 1:0.684074 2:-0.24212 3:-0.255901 4:0.354896 5:-0.957786 6:0.686898 7:-0.0420179 8:-0.917625 9:-0.950966 10:-0.94114 
-1 1:0.165646 2:0.109431 3:-0.182352 4:0.195075 5:-0.98937 6:0.645793 7:-0.0314141 8:-0.957287 9:-0.96429 10:-0.941888 
-1 1:-0.439078 2:0.528787 3:0.570971 4:-0.24281 5:-0.994056 6:0.203276 7:0.434312 8:-0.974889 9:-0.981079 10:0.0279173 
-1 1:-0.297125 2:0.36623 3:0.573341 4:0.614658 5:-0.986936 6:0.694444 7:0.430339 8:-0.967613 9:-0.968821 10:0.152999 
-1 1:0.242986 2:-0.294039 3:0.618453 4:-0.24281 5:-0.992494 6:0.413937 7:0.337576 8:-0.885238 9:-0.84437 10:-0.094482 
-1 1:0.762998 2:-0.0297407 3:0.942611 4:-0.0963144 5:-0.993326 6:0.470135 7:0.0903227 8:-0.889228 9:-0.885943 10:-0.531863 
-1 1:0.55859 2:0.714985 3:0.862087 4:0.650839 5:-0.986814 6:0.775048 7:-0.365988 8:-0.804975 9:-0.787342 10:-0.20743 
-1 1:0.883612 2:0.663256 3:-0.158465 4:1 5:0.809216 6:0.570006 7:-0.0300786 8:-0.832903 9:-0.877948 10:-0.993387 
-1 1:-0.301513 2:0.0492501 3:-0.434635 4:1 5:-0.983853 6:0.607739 7:0.389092 8:-0.970195 9:-0.972818 10:-0.282666 
-1 1:-0.449185 2:0.410269 3:0.448693 4:0.655478 5:-0.978538 6:0.597784 7:0.368633 8:-0.957522 9:-0.951499 10:-0.032409 
-1 1:-0.431154 2:0.545183 3:0.406378 4:0.637345 5:-0.981155 6:0.648202 7:0.340273 8:-0.962215 9:-0.966689 10:0.0609813 
-1 1:0.426652 2:0.546708 3:0.37881 4:0.455512 5:-0.993448 6:0.710662 7:0.116552 8:-0.974654 9:-0.977082 10:0.494713 
-1 1:0.671969 2:-0.322382 3:-0.438029 4:0.732394 5:-0.986916 6:0.733943 7:-0.034459 8:-0.925135 9:-0.941106 10:-0.876353 
-1 1:0.594285 2:0.825496 3:-0.468228 4:0.471283 5:0.806254 6:0.879897 7:-0.028456 8:-0.801455 9:-0.845969 10:-0.998004 
-1 1:0.580848 2:0.865976 3:-0.27713 4:0.2601 5:-0.888227 6:-0.294155 7:-0.158653 8:-0.677306 9:-0.882212 10:-0.997598 
-1 1:0.497238 2:-0.538383 3:-0.674196 4:-0.216075 5:-0.972006 6:0.814387 7:-0.00975243 8:-0.941798 9:-0.958961 10:-0.954303 
-1 1:0.632438 2:-0.640824 3:0.0611678 4:0.309775 5:-0.987484 6:0.649165 7:0.135028 8:-0.948838 9:-0.958961 10:-0.282853 
-0.2151283420167342 1:-0.288466 2:-0.2826 3:0.153541 4:-0.262883 5:-0.936608 6:0.297688 7:0.344046 8:-0.979817 9:-0.976815 10:-0.380517 
-0.1909503661241811 1:0.838913 2:-0.56876 3:-0.433118 4:0.897023 5:0.188949 6:0.345857 7:-0.0320351 8:-0.948838 9:-0.972818 10:-0.919586 
-1 1:0.160685 2:1 3:0.106194 4:1 5:-0.942876 6:0.381021 7:-0.343752 8:-0.990613 9:-0.987209 10:0.0461025 
-1 1:0.512628 2:0.192361 3:0.266559 4:0.564983 5:-0.986652 6:0.395633 7:-0.522809 8:-0.952124 9:-0.941106 10:0.50145 
-1 1:0.0388993 2:0.938739 3:-0.277191 4:-0.261871 5:-0.983143 6:0.933205 7:0.412443 8:-0.971368 9:-0.96962 10:0.461337 
-1 1:0.740028 2:1 3:0.550301 4:0.993169 5:-0.983467 6:0.330764 7:-0.0301654 8:-0.915513 9:-0.906462 10:-0.972519 
-1 1:0.70114 2:0.0842018 3:-0.22816 4:0.741419 5:-0.982636 6:0.637283 7:-0.136778 8:-0.736447 9:-0.87555 10:-0.991672 
-1 1:0.883612 2:0.663256 3:-0.158465 4:1 5:0.809216 6:0.570006 7:-0.0300786 8:-0.832903 9:-0.877948 10:-0.993387 
-0.1795461994053689 1:0.876308 2:0.663256 3:-0.709713 4:1 5:-0.957096 6:0.637283 7:0.00527853 8:-0.89134 9:-0.884077 10:-0.62045 
-1 1:0.543591 2:0.557511 3:0.472066 4:-0.0958084 5:-0.986916 6:0.921484 7:-0.0336043 8:-0.909646 9:-0.911526 10:-0.521226 
-1 1:0.763343 2:0.722229 3:0.272191 4:0.0568441 5:-0.984177 6:0.773603 7:-0.250782 8:-0.857545 9:-0.887542 10:-0.594466 
-1 1:0.793272 2:0.138409 3:-0.547188 4:0.494813 5:-0.960058 6:0.616089 7:0.0592792 8:-0.941328 9:-0.967755 10:0.105992 
-1 1:0.24101 2:0.241739 3:-0.387001 4:0.92865 5:-0.846906 6:0.618658 7:-0.557485 8:-0.980756 9:-0.972552 10:0.583736 
-1 1:0.816403 2:0.931685 3:-0.693548 4:1 5:-0.110302 6:0.872832 7:0.562947 8:0.245013 9:-0.451566 10:-0.913222 
-0.5302104437902393 1:-0.283022 2:0.947318 3:-0.754156 4:0.821371 5:0.93673 6:0.861432 7:0.73214 8:-0.984511 9:-0.976549 10:-0.000343117 
-1 1:0.818447 2:0.523577 3:-0.0893679 4:0.356161 5:-0.964785 6:0.43192 7:-0.0428326 8:-0.82422 9:-0.817988 10:-0.703266 
-1 1:0.879133 2:-0.16834 3:-0.162611 4:0.508307 5:-0.964785 6:0.620263 7:0.0232075 8:-0.533912 9:-0.602398 10:-0.95867 
-1 1:0.249004 2:0.608287 3:-0.129859 4:0.943493 5:-0.641415 6:0.478645 7:-0.368192 8:-0.362122 9:-0.443837 10:-0.350323 
-1 1:0.544969 2:0.613371 3:-0.531746 4:0.923589 5:-0.268832 6:0.854849 7:-0.871352 8:-0.986858 9:-0.978148 10:-0.12948 
-1 1:0.957828 2:0.94376 3:0.331313 4:0.812853 5:-0.670504 6:0.749358 7:-0.711901 8:-0.557381 9:-0.572285 10:-0.259584 
-1 1:0.837925 2:0.711172 3:-0.515495 4:0.956903 5:-0.295772 6:0.841201 7:-0.855807 8:-0.985215 9:-0.976549 10:-0.010699 
-1 1:0.647552 2:1 3:-0.70377 4:0.0155183 5:-0.94673 6:0.658638 7:-0.446392 8:-0.937104 9:-0.917655 10:0.159643 
-1 1:0.974297 2:1 3:-0.792005 4:0.650417 5:-0.981581 6:0.93465 7:-0.024316 8:-0.754752 9:-0.871286 10:-0.831623 
-0.7532496367905718 1:0.96481 2:1 3:-0.804594 4:0.650417 5:-0.987403 6:0.900128 7:0.00477105 8:-0.87233 9:-0.877415 10:-0.521039 
-1 1:0.897256 2:1 3:-0.624529 4:0.650417 5:-0.986754 6:0.865286 7:-0.0444285 8:-0.867402 9:-0.851566 10:-0.913347 
-1 1:0.191832 2:1 3:-0.746049 4:0.650417 5:-0.989005 6:0.828356 7:-0.00117189 8:-0.845107 9:-0.826516 10:-0.662903 
-1 1:0.714532 2:0.788765 3:-0.701591 4:1 5:-0.969044 6:0.876365 7:-0.0903761 8:-0.873034 9:-0.885676 10:-0.685985 
-1 1:0.397251 2:0.822255 3:0.345812 4:0.828962 5:-0.693082 6:0.832531 7:-0.763424 8:-0.539779 9:-0.592272 10:-0.444087 
-1 1:0.447945 2:0.565773 3:-0.446886 4:0.674623 5:-0.976793 6:0.815992 7:-0.0177587 8:-0.921849 9:-0.985077 10:-0.587355 
-1 1:0.30397 2:0.970386 3:-0.513631 4:0.953614 5:-0.284594 6:0.782916 7:-0.847266 8:-0.983572 9:-0.974417 10:-0.0577997 
-1 1:0.496549 2:1 3:-0.599653 4:0.622586 5:-0.967077 6:0.427425 7:-0.592247 8:-0.896268 9:-0.850233 10:0.00215228 
-1 1:0.84902 2:1 3:-0.616788 4:0.541705 5:-0.985415 6:0.905267 7:0.0543913 8:-0.816475 9:-0.806262 10:0.298886 
-1 1:0.531049 2:1 3:-0.519578 4:0.711394 5:-0.974745 6:0.867373 7:0.190364 8:-0.97348 9:-0.981612 10:0.480208 
-1 1:-0.0894328 2:0.125127 3:-0.00895412 4:0.737202 5:-0.963486 6:0.90896 7:0.152263 8:-0.870453 9:-0.893671 10:-0.383356 
-0.6674901005925751 1:-0.321106 2:0.719878 3:-0.568723 4:0.985831 5:0.767326 6:0.86352 7:0.721416 8:-0.986858 9:-0.983478 10:0.0343117 
-1 1:0.444086 2:0.906139 3:0.455532 4:0.720418 5:-0.870153 6:0.891458 7:-0.823461 8:-0.889697 9:-0.841706 10:0.247076 
-1 1:0.57081 2:-0.293467 3:-0.253613 4:0.539344 5:-0.959774 6:0.367534 7:-0.105467 8:-0.567003 9:-0.697002 10:-0.957079 
-0.2008385351170686 1:-0.403705 2:1 3:-0.308635 4:0.891541 5:-0.800128 6:0.128292 7:0.718211 8:-0.981225 9:-0.971486 10:0.542219 
-0.5447681378942042 1:0.110818 2:0.794103 3:0.243382 4:0.978409 5:-0.493108 6:0.72158 7:0.59809 8:-0.950716 9:-0.937908 10:0.344427 
-1 1:0.68474 2:-0.250381 3:-0.182584 4:0.657333 5:0.161441 6:0.537091 7:0.150961 8:0.527106 9:-0.568554 10:-1 
-1 1:0.519174 2:1 3:-0.145337 4:0.14852 5:-0.961803 6:0.2728 7:-0.220814 8:-0.996949 9:-0.993338 10:0.76721 
