svm_type c_svc
kernel_type rbf
gamma 0.0666667
nr_class 2
total_sv 113
rho -0.993964
label 0 1
probA -37.1143
probB 34.3215
nr_sv 72 41
SV
1 1:0.616316 2:0.84087 3:-0.680404 4:0.955524 5:0.56936 6:-0.971907 7:-0.965782 8:-1 9:0.997498 10:-0.977522 11:-0.00940768 12:-1 13:-1 14:-1 15:1 
0.8073763507814908 1:0.544261 2:0.109926 3:-0.0397333 4:0.175368 5:-0.208763 6:-0.961068 7:0.155971 8:-1 9:0.935701 10:-0.949426 11:-0.847196 12:-0.0508126 13:0.690769 14:-0.0726914 15:0.981914 
0.3281983195694996 1:0.258291 2:0.66534 3:-0.618095 4:-0.669622 5:0.00122318 6:-0.972784 7:-0.980634 8:-1 9:0.999139 10:-0.999414 11:-0.866405 12:0.00509465 13:0.301038 14:0.0538371 15:-0.452647 
0.7392304243905407 1:0.371859 2:0.942675 3:-0.69323 4:0.951882 5:-0.0293363 6:-0.947645 7:-0.918388 8:-1 9:0.986632 10:-0.942801 11:-0.00940768 12:-1 13:-1 14:-1 15:1 
0.1231816847718651 1:0.521857 2:0.215764 3:-0.0907074 4:0.0704755 5:-0.847644 6:-0.932312 7:-0.943483 8:-1 9:0.993456 10:-0.931745 11:-0.823061 12:0.0991764 13:0.785413 14:0.407501 15:-0.274292 
1 1:0.481971 2:0.617834 3:-0.101258 4:-0.140324 5:0.412533 6:-0.950767 7:-0.959772 8:-1 9:0.996598 10:-0.954869 11:-0.798684 12:-0.251732 13:-0.263879 14:-0.131819 15:1 
0.04647905830428566 1:0.404511 2:0.744427 3:-0.730306 4:0.717561 5:-0.639783 6:-0.979493 7:0.120966 8:-1 9:-0.968541 10:-0.953551 11:-0.00940768 12:-1 13:-1 14:-1 15:1 
1 1:0.461757 2:0.563535 3:-0.514947 4:0.95027 5:0.704391 6:-0.92103 7:-0.964901 8:-1 9:0.997378 10:-0.924949 11:-0.828926 12:-0.0974598 13:0.878542 14:0.660127 15:-0.54268 
0.105439152781679 1:0.64943 2:-0.186146 3:-0.161928 4:0.156264 5:-0.346681 6:-0.960661 7:0.12171 8:-1 9:-0.970582 10:-0.950313 11:-0.0850527 12:-0.150312 13:0.874925 14:0.309178 15:0.00627894 
0.7781324841362298 1:0.352308 2:0.0619958 3:-0.688047 4:0.346706 5:-0.345238 6:-0.951655 7:-0.799026 8:-1 9:0.921573 10:-0.978675 11:-0.694351 12:-0.27345 13:0.771027 14:0.0937436 15:0.418561 
0.46377720048833 1:0.0998342 2:0.814013 3:-0.597743 4:-0.217158 5:0.0347704 6:-0.948523 7:0.0786284 8:-1 9:-0.851371 10:-0.975082 11:-0.880668 12:0.0653249 13:0.437407 14:0.187584 15:0.0564479 
0.3066118281095164 1:0.340895 2:0.898992 3:-0.604944 4:0.725381 5:0.855163 6:-0.951389 7:0.303974 8:-1 9:0.530098 10:-0.964161 11:-0.853172 12:0.0658603 13:0.849082 14:0.484534 15:-0.0511494 
0.1366348479057621 1:0.466439 2:-0.202866 3:-0.740896 4:-0.0549536 5:-0.305314 6:-0.932515 7:0.123891 8:-1 9:-0.976626 10:-0.916093 11:-0.294061 12:0.0467967 13:0.964438 14:0.313703 15:-0.655972 
0.116893877506395 1:0.800372 2:-0.259926 3:-0.132699 4:-0.0549536 5:-0.80776 6:-0.860348 7:-0.969791 8:-1 9:0.998019 10:-0.860282 11:-0.680704 12:0.0828136 13:0.789091 14:0.406143 15:-0.194814 
0.8693620745724072 1:0.928487 2:0.992091 3:-0.180833 4:0.147369 5:0.114698 6:-0.921364 7:-0.964142 8:-1 9:0.997258 10:-0.925215 11:-0.718597 12:-0.366193 13:-1 14:-1 15:1 
0.4099769344659273 1:0.283569 2:0.266295 3:-0.61036 4:0.94424 5:0.22687 6:-0.877587 7:-0.942869 8:-1 9:0.993316 10:-0.876616 11:-0.731457 12:-0.0194809 13:0.946111 14:0.300279 15:-0.0532354 
0.05576867209537641 1:0.368865 2:0.0992038 3:-0.641199 4:-0.116504 5:-0.0102466 6:-0.931915 7:0.121262 8:-1 9:-0.969342 10:-0.91694 11:-0.771238 12:-0.489645 13:0.978016 14:0.137981 15:-0.455526 
0.02986808782633223 1:0.500055 2:0.665817 3:-0.690665 4:0.918211 5:-0.301745 6:-0.974846 7:0.117043 8:-1 9:-0.957675 10:-0.968596 11:-0.00940768 12:-1 13:-1 14:-1 15:1 
0.649529221453559 1:0.417049 2:0.345754 3:-0.721514 4:0.854273 5:0.850451 6:-0.961893 7:-0.971503 8:-1 9:0.998219 10:-0.97232 11:-0.823788 12:-0.20429 13:-0.615926 14:-0.191183 15:0.961304 
0.02087724715518899 1:0.319596 2:-0.171709 3:-0.760511 4:0.139667 5:0.0334269 6:-0.941307 7:0.0942457 8:-1 9:-0.894557 10:-0.939518 11:-0.0595046 12:-0.154154 13:0.918429 14:0.0888738 15:1 
1 1:0.506947 2:-0.171709 3:-0.0753204 4:0.139667 5:-0.10782 6:-0.903806 7:-0.967776 8:-1 9:0.997759 10:-0.900507 11:-0.764283 12:-0.00800025 13:0.739869 14:0.181206 15:1 
0.01668682340184161 1:0.0480936 2:1 3:-0.132141 4:1 5:0.936555 6:-0.971097 7:-0.96238 8:-1 9:0.996998 10:-0.988202 11:-0.869393 12:-0.691518 13:0.903739 14:0.387849 15:-0.575431 
1 1:0.23655 2:0.642675 3:-0.405706 4:0.328199 5:0.871225 6:-0.916336 7:-0.979319 8:-1 9:0.999019 10:-0.958362 11:-0.907427 12:-0.0774749 13:0.898829 14:0.343504 15:1 
0.1172014980877508 1:0.787793 2:0.932962 3:-0.0600765 4:0.13919 5:-0.373812 6:-0.949661 7:0.128717 8:-1 9:-0.990014 10:-0.933634 11:-0.369262 12:-0.259969 13:0.790586 14:0.00923322 15:0.569673 
1 1:0.49889 2:0.642675 3:-0.582805 4:0.328199 5:0.933226 6:-0.964242 7:-0.983075 8:-1 9:0.99932 10:-0.97243 11:-0.864527 12:-0.197313 13:0.895515 14:0.171294 15:0.353623 
1 1:0.835877 2:0.932962 3:-0.0731156 4:0.13919 5:-0.441648 6:-0.954871 7:-0.97799 8:-1 9:0.998899 10:-0.951617 11:-0.859672 12:0.0900501 13:0.559249 14:-0.0928601 15:-0.239914 
0.5993212934468484 1:0.555533 2:0.789066 3:-0.587573 4:0.989851 5:-0.261881 6:-0.982594 7:-0.976437 8:-1 9:0.998759 10:-0.977096 11:-0.00940768 12:-1 13:-1 14:-1 15:1 
0.3216297661714489 1:0.730165 2:0.747877 3:-0.799138 4:0.848243 5:0.112312 6:-0.981466 7:-0.529552 8:-1 9:0.587172 10:-0.961755 11:-0.831812 12:-0.220818 13:0.961649 14:0.458806 15:-0.437816 
0.4690517973884704 1:0.924489 2:0.699045 3:-0.54119 4:0.527656 5:-0.564127 6:-0.96703 7:0.135138 8:-1 9:0.993396 10:-0.979953 11:-0.00940768 12:-1 13:-1 14:-1 15:1 
1 1:0.336113 2:-0.0376327 3:-0.391588 4:0.11525 5:0.356828 6:-0.973013 7:0.108303 8:-1 9:-0.93346 10:-0.956012 11:-0.807728 12:0.0563167 13:0.967852 14:0.759828 15:-0.387813 
0.4407804448179785 1:0.227026 2:-0.0642781 3:-0.718865 4:0.12319 5:-0.656988 6:-0.926992 7:-0.959057 8:-1 9:0.996478 10:-0.92536 11:-0.80682 12:0.0400643 13:-0.997313 14:-0.255223 15:1 
1 1:0.623449 2:1 3:-0.669933 4:0.690696 5:-0.329838 6:-0.938765 7:-0.983321 8:-1 9:0.99934 10:-0.937709 11:-0.862811 12:-0.383091 13:0.379841 14:0.0971912 15:0.490738 
0.04078881026213381 1:0.811644 2:-0.0812633 3:-0.868326 4:0.975762 5:0.613254 6:-0.968503 7:0.0990205 8:-1 9:-0.907765 10:-0.995194 11:-0.00940768 12:-1 13:-1 14:-1 15:1 
1 1:0.69888 2:0.519639 3:-0.306126 4:1 5:0.864227 6:-0.961977 7:-0.962734 8:-1 9:0.997058 10:-0.960302 11:-0.919823 12:-0.0769473 13:0.693598 14:0.279572 15:0.383975 
0.7238839430979523 1:0.467022 2:1 3:-0.495141 4:0.477986 5:-0.483417 6:-0.982829 7:-0.987243 8:-1 9:0.99958 10:-0.979572 11:-0.896818 12:-0.192282 13:0.802407 14:-0.0509282 15:0.0235513 
0.159830500545238 1:0.38273 2:1 3:-0.691141 4:0.974747 5:0.306056 6:-0.970831 7:0.126737 8:-1 9:-0.984511 10:-0.989681 11:-0.00940768 12:-1 13:-1 14:-1 15:1 
1 1:0.555533 2:0.789066 3:-0.587573 4:0.989851 5:-0.261881 6:-0.982594 7:-0.976437 8:-1 9:0.998759 10:-0.977096 11:-0.00940768 12:-1 13:-1 14:-1 15:1 
0.7631076471082903 1:0.67308 2:0.747187 3:-0.664707 4:0.975404 5:0.289713 6:-0.993239 7:0.121125 8:-1 9:-0.968961 10:-0.985862 11:-0.00940768 12:-1 13:-1 14:-1 15:1 
0.005214422553933392 1:0.805234 2:0.103079 3:-0.575735 4:0.217337 5:0.521356 6:-0.993458 7:0.121572 8:-1 9:-0.970222 10:-0.985155 11:-0.00940768 12:-1 13:-1 14:-1 15:1 
0.2224224355709414 1:0.551937 2:1 3:-0.249787 4:1 5:0.242751 6:-0.918278 7:-0.993167 8:-1 9:0.99986 10:-0.921396 11:-0.765706 12:-0.503299 13:0.889211 14:0.385048 15:-0.592494 
0.7904960815941591 1:0.925112 2:1 3:-0.758526 4:1 5:0.62697 6:-0.918618 7:-0.978792 8:-1 9:0.998979 10:-0.922122 11:-0.759236 12:-0.212574 13:0.932411 14:0.396576 15:-0.884872 
1 1:0.412629 2:0.954193 3:-0.365609 4:0.531895 5:-0.976539 6:-0.899013 7:-0.394905 8:-0.0954144 9:-0.126616 10:-0.97015 11:-0.00940768 12:-1 13:-1 14:-1 15:1 
0.1030537885486955 1:0.474496 2:0.679087 3:-0.175896 4:0.676666 5:-0.982214 6:-0.898784 7:-0.379778 8:-0.0688226 9:0.185411 10:-0.967158 11:-0.00940768 12:-1 13:-1 14:-1 15:1 
0.3955721796302062 1:0.207133 2:0.348885 3:-0.740032 4:0.928539 5:0.835933 6:-0.975039 7:-0.340786 8:-0.0954144 9:0.469762 10:-0.994437 11:-0.00940768 12:-1 13:-1 14:-1 15:1 
0.1549076449582096 1:-0.470498 2:0.891295 3:-0.606221 4:0.818274 5:-0.214798 6:-0.952449 7:-0.403876 8:-0.0954144 9:-0.0940564 10:-0.956724 11:-0.00940768 12:-1 13:-1 14:-1 15:1 
0.6109792913556972 1:0.247461 2:0.738747 3:-0.421232 4:0.961912 5:0.816844 6:-0.981638 7:-0.25999 8:-0.0688226 9:0.101161 10:-0.991741 11:-0.00940768 12:-1 13:-1 14:-1 15:1 
0.7393722247606548 1:0.164555 2:0.746497 3:-0.768373 4:0.966091 5:0.2923 6:-0.968497 7:-0.551085 8:-1 9:0.622734 10:-0.986508 11:-0.00940768 12:-1 13:-1 14:-1 15:1 
0.7425748578471658 1:-0.181253 2:0.514331 3:-0.721014 4:0.0101788 5:0.648626 6:-0.910875 7:-0.983249 8:-1 9:0.99934 10:-0.915938 11:-0.814229 12:-0.212574 13:0.871551 14:0.309264 15:-0.446014 
0.7618895509886855 1:0.76121 2:0.603981 3:-0.515147 4:0.919226 5:-0.268438 6:-0.908207 7:-0.345228 8:-0.0379691 9:-0.0755653 10:-0.901118 11:-0.704637 12:0.0635217 13:0.964801 14:0.235248 15:-0.18599 
0.05619547129053027 1:0.0302909 2:0.772081 3:0.188909 4:0.980359 5:-0.98089 6:-0.92424 7:0.251235 8:-0.0775001 9:0.546768 10:-0.97008 11:-0.00940768 12:-1 13:-1 14:-1 15:1 
0.5713609502918665 1:-0.446848 2:0.829512 3:-0.256153 4:0.918808 5:-0.991698 6:-0.906704 7:0.104279 8:0.0594508 9:0.791455 10:-0.959796 11:-0.00940768 12:-1 13:-1 14:-1 15:1 
0.2705678319380286 1:0.524589 2:0.903662 3:-0.0857667 4:1 5:-0.641207 6:-0.740054 7:-0.108043 8:-0.10899 9:0.443746 10:-0.765019 11:1 12:-1 13:-1 14:-1 15:1 
0.3435596516213958 1:0.0673231 2:0.935563 3:-0.0754011 4:0.805439 5:0.178404 6:-0.937423 7:-0.731891 8:-0.918315 9:0.463238 10:-0.948118 11:-0.926 12:-0.078034 13:0.757933 14:0.393279 15:-0.268201 
0.8947016117631268 1:0.893806 2:0.88551 3:-0.29245 4:1 5:0.835613 6:-0.932296 7:-0.903609 8:-0.983281 9:0.324154 10:-0.960307 11:-0.812371 12:-0.409233 13:0.678544 14:0.101846 15:-0.385039 
0.5256852163045449 1:0.692249 2:0.942569 3:-0.239064 4:1 5:-0.197173 6:-0.91443 7:-0.895439 8:-0.831559 9:-0.528497 10:-0.8956 11:-0.502867 12:-0.509024 13:-1 14:-1 15:1 
1 1:0.798081 2:0.99172 3:-0.372151 4:1 5:0.29224 6:-0.953592 7:-0.906975 8:-0.917043 9:0.576186 10:-0.975613 11:-0.00940768 12:-1 13:-1 14:-1 15:1 
0.7685647974893961 1:0.996865 2:0.951168 3:-0.382147 4:1 5:0.355945 6:-0.941715 7:-0.907726 8:-0.931235 9:-0.0438663 10:-0.92946 11:-0.610692 12:-0.516591 13:0.13638 14:-0.241217 15:1 
1 1:0.276255 2:0.864862 3:-0.659999 4:0.944778 5:-0.256026 6:-0.966185 7:0.0902872 8:-0.056944 9:-0.830438 10:-0.993795 11:-0.00940768 12:-1 13:-1 14:-1 15:1 
0.1384239749331472 1:0.748852 2:0.984501 3:0.173949 4:0.884183 5:-0.994506 6:-0.937668 7:-0.927837 8:-1 9:0.989494 10:-0.954057 11:-0.885997 12:-0.224708 13:-0.0740041 14:-0.103526 15:0.857462 
0.04438088496681347 1:-0.4237 2:0.75276 3:-0.901125 4:1 5:-0.828855 6:-0.861799 7:-0.498151 8:-0.128293 9:-0.607665 10:-0.92762 11:1 12:-1 13:-1 14:-1 15:1 
1 1:0.83007 2:0.963057 3:-0.671798 4:0.977075 5:-0.931201 6:-0.951514 7:0.107797 8:0.071368 9:-0.887232 10:-0.962873 11:-0.00940768 12:-1 13:-1 14:-1 15:1 
1 1:1 2:0.929034 3:-0.419479 4:0.975284 5:0.0883698 6:-0.920544 7:-0.984231 8:-0.586448 9:0.98285 10:-0.994101 11:-0.786369 12:-0.559947 13:0.939968 14:0.347275 15:1 
1 1:0.873652 2:0.753079 3:0.100123 4:0.905197 5:0.429477 6:-0.907184 7:-0.981089 8:-0.970882 9:0.928717 10:-0.905939 11:-0.638148 12:-0.467282 13:0.207403 14:-0.164851 15:1 
0.5907505845949644 1:0.0035063 2:0.78482 3:0.0697935 4:0.759768 5:-0.56912 6:-0.961585 7:0.138678 8:-0.0993289 9:-0.977246 10:-0.988914 11:-0.910264 12:-0.148745 13:0.97939 14:0.468869 15:-0.101777 
0.6835156466979363 1:-0.772763 2:0.758015 3:-0.0913573 4:0.942987 5:0.67311 6:-0.884301 7:-0.993383 8:-1 9:0.99986 10:-0.985346 11:-0.881152 12:-0.32968 13:0.981209 14:0.43129 15:1 
0.9689865350160239 1:0.975767 2:0.558811 3:-0.654169 4:0.869556 5:0.0304792 6:-0.911877 7:-0.968606 8:-0.95372 9:-0.0375425 10:-0.924498 11:-0.199994 12:-0.519536 13:0.13349 14:0.0610341 15:1 
0.9155312090704854 1:0.972532 2:0.857696 3:-0.158513 4:0.997612 5:-0.893543 6:-0.961575 7:-0.827234 8:-1 9:0.941765 10:-0.956543 11:-0.796281 12:0.0952707 13:0.936877 14:0.423575 15:-0.383787 
1 1:-0.76997 2:0.752017 3:-0.521032 4:0.68389 5:0.636495 6:-0.91241 7:-0.991743 8:-1 9:0.9998 10:-0.984684 11:-0.911475 12:-0.296395 13:0.988058 14:0.406294 15:0.934144 
0.4341099922057381 1:-0.143819 2:-0.052707 3:-0.315907 4:0.123847 5:0.595388 6:-0.895959 7:-0.910002 8:-0.559277 9:0.943606 10:-0.9339 11:-0.769371 12:-0.508977 13:0.926713 14:0.361582 15:0.174434 
1 1:-0.131944 2:-0.307006 3:-0.0113866 4:0.603534 5:0.181291 6:-0.917876 7:-0.800803 8:-0.859405 9:0.546908 10:-0.885542 11:-0.938759 12:-0.089995 13:0.772219 14:0.31254 15:0.914827 
0.2453134533901989 1:0.914462 2:0.144798 3:-0.588748 4:0.903406 5:-0.0135552 6:-0.936676 7:0.139422 8:-0.060145 9:0.197098 10:-0.973182 11:-0.787065 12:0.0602066 13:0.825805 14:0.448075 15:0.0219659 
0.3822497199751172 1:0.280735 2:0.801699 3:-0.419272 4:0.236799 5:-0.18087 6:-0.895912 7:0.124245 8:-0.0977477 9:-0.0270162 10:-0.897855 11:1 12:-1 13:-1 14:-1 15:1 
-1 1:0.377465 2:0.267463 3:-0.276282 4:0.963703 5:0.675777 6:-0.914394 7:-0.992394 8:-1 9:0.99982 10:-0.999559 11:-0.87019 12:-0.0592853 13:0.923905 14:0.204909 15:0.990029 
-1 1:0.648485 2:0.681369 3:-0.0690119 4:0.257097 5:-0.405615 6:-0.931471 7:-0.970817 8:-1 9:0.998139 10:-0.99358 11:-0.939456 12:-0.0938219 13:-0.589275 14:-0.262743 15:1 
-1 1:-0.0697945 2:-0.333493 3:-0.232774 4:0.854154 5:0.325727 6:-0.908045 7:-0.971554 8:-1 9:0.998239 10:-0.998852 11:-0.788872 12:-0.0556632 13:0.1344 14:-0.193833 15:1 
-1 1:-0.224554 2:-0.0712845 3:-0.661828 4:-0.00767141 5:0.0745338 6:-1 7:0.0994683 8:-1 9:-0.909005 10:-0.931414 11:-0.748011 12:-0.0236543 13:0.271315 14:0.231929 15:-0.912721 
-1 1:-0.128749 2:-0.310297 3:-0.593064 4:0.142533 5:0.520954 6:-0.96124 7:-0.0214395 8:-1 9:-0.577246 10:-0.887687 11:-0.690445 12:-0.095003 13:0.855609 14:0.319004 15:0.401769 
-1 1:0.293414 2:0.388376 3:-0.323469 4:-0.00379093 5:-0.411931 6:-0.964253 7:-0.985141 8:-1 9:0.99946 10:-0.999599 11:-0.971676 12:-0.0596633 13:0.411422 14:0.0803624 15:0.475677 
-1 1:0.930095 2:0.355892 3:-0.490015 4:-0.00695502 5:0.69629 6:-0.930176 7:-0.952202 8:-1 9:0.995257 10:-0.99583 11:-0.944543 12:-0.162501 13:0.876724 14:0.325576 15:0.365222 
-1 1:0.762496 2:-0.0930467 3:-0.362289 4:-0.0469538 5:0.331241 6:-0.920398 7:-0.934302 8:-1 9:0.991235 10:-0.997825 11:-0.81434 12:-0.186053 13:0.882482 14:0.128629 15:1 
-1 1:0.652303 2:1 3:0.051675 4:1 5:-0.386365 6:-0.919234 7:-0.973916 8:-1 9:0.998499 10:-0.996136 11:-0.913847 12:-0.111295 13:0.83116 14:0.507116 15:1 
-1 1:0.707018 2:0.178981 3:-0.825003 4:0.864959 5:-0.478544 6:-0.922377 7:-0.981558 8:-1 9:0.9992 10:-0.9957 11:-0.644719 12:0.143768 13:0.500126 14:-0.0653652 15:1 
-1 1:0.293414 2:0.388376 3:-0.323469 4:-0.00379093 5:-0.411931 6:-0.964253 7:-0.985141 8:-1 9:0.99946 10:-1 11:-0.997688 12:-0.0513796 13:0.533729 14:0.163257 15:0.135508 
-1 1:0.930095 2:0.355892 3:-0.490015 4:-0.00695502 5:0.69629 6:-0.930176 7:-0.952202 8:-1 9:0.995257 10:-0.99583 11:-0.944543 12:-0.162501 13:0.876724 14:0.325576 15:0.365222 
-1 1:0.813513 2:0.718737 3:-0.0494121 4:0.789678 5:-0.332124 6:-0.960442 7:0.120402 8:-1 9:-0.96696 10:-0.908576 11:-0.656963 12:-0.362232 13:0.311039 14:0.073381 15:0.157391 
-1 1:0.648485 2:0.681369 3:-0.0690119 4:0.257097 5:-0.405615 6:-0.931471 7:-0.970817 8:-1 9:0.998139 10:-0.99358 11:-0.939456 12:-0.0938219 13:-0.589275 14:-0.262743 15:1 
-1 1:-0.297835 2:1 3:-0.310101 4:0.535477 5:0.958292 6:-0.94054 7:-0.961137 8:-1 9:0.996818 10:-0.99769 11:-0.865628 12:0.0205046 13:0.919298 14:0.41668 15:0.499854 
-1 1:0.0931632 2:1 3:-0.729046 4:-0.027432 5:0.658693 6:-0.938305 7:-0.930755 8:-1 9:0.990294 10:-0.99992 11:-0.957837 12:0.0648524 13:0.931017 14:0.473803 15:1 
-1 1:0.242457 2:1 3:-0.162001 4:1 5:0.528474 6:-0.959382 7:-0.983516 8:-1 9:0.99936 10:-0.998612 11:-0.966982 12:-0.113917 13:0.961346 14:0.20493 15:0.228191 
-1 1:0.389139 2:1 3:-0.430573 4:0.765738 5:0.583778 6:-0.962238 7:-0.972507 8:-1 9:0.998339 10:-0.998461 11:-0.976743 12:-0.0961133 13:0.905335 14:0.801157 15:-0.187138 
-1 1:0.785342 2:0.63328 3:-0.466145 4:0.942987 5:0.593844 6:-0.958124 7:-0.970976 8:-0.973408 9:0.886152 10:-0.999168 11:-1 12:-0.163052 13:0.959265 14:0.533835 15:-0.0278485 
-1 1:0.471703 2:0.6638 3:-0.76272 4:0.561446 5:0.852216 6:-0.954949 7:-0.944234 8:-1 9:0.993616 10:-0.996301 11:-0.941182 12:-0.118208 13:0.934129 14:0.336199 15:0.756748 
-1 1:0.128749 2:0.656847 3:-0.219831 4:0.617743 5:0.734971 6:-0.957508 7:-0.94669 8:-1 9:0.994156 10:-0.99989 11:-0.989331 12:-0.132382 13:0.928087 14:0.706239 15:0.0351496 
-1 1:0.556618 2:0.606263 3:-0.487561 4:0.972956 5:0.456788 6:-0.941929 7:-0.959115 8:-0.969204 9:0.607585 10:-0.992673 11:-0.926444 12:-0.0187329 13:0.959871 14:0.387267 15:0.86228 
-1 1:0.202893 2:1 3:-0.921938 4:0.960658 5:-0.0296772 6:-0.984108 7:-0.504934 8:-0.857264 9:0.504863 10:-0.938947 11:-0.00940768 12:-1 13:-1 14:-1 15:1 
-1 1:0.652605 2:0.89379 3:-0.711161 4:1 5:0.185462 6:-0.995061 7:-0.971843 8:-0.900324 9:0.951911 10:-0.963509 11:-0.00940768 12:-1 13:-1 14:-1 15:1 
-1 1:0.268458 2:0.982909 3:0.125298 4:0.947763 5:-0.675416 6:-0.97612 7:-0.476776 8:-0.458116 9:0.541585 10:-0.933659 11:-0.00940768 12:-1 13:-1 14:-1 15:1 
-1 1:0.259939 2:1 3:-0.988135 4:0.931047 5:-0.491939 6:-0.977759 7:-0.462987 8:-0.516622 9:-0.597799 10:-0.953897 11:-0.00940768 12:-1 13:-1 14:-1 15:1 
-1 1:0.704848 2:0.838747 3:-0.531215 4:0.919764 5:0.726008 6:-0.984087 7:-0.91032 8:-0.749605 9:0.792055 10:-0.923801 11:-0.838495 12:-0.404446 13:0.975955 14:0.606969 15:-0.691706 
-1 1:-0.17418 2:0.838323 3:-0.295903 4:0.788305 5:-0.166633 6:-0.962989 7:0.158348 8:-0.232192 9:0.89956 10:-0.94667 11:-0.00940768 12:-1 13:-1 14:-1 15:1 
-1 1:0.794424 2:0.511518 3:-0.614584 4:0.93833 5:-0.698336 6:-0.975817 7:-0.00614002 8:0.0182036 9:-0.476866 10:-0.90851 11:-0.00940768 12:-1 13:-1 14:-1 15:1 
-1 1:0.228271 2:0.943418 3:-0.763212 4:0.207606 5:0.0984159 6:-0.984076 7:-0.511738 8:-0.819044 9:0.131799 10:-0.944069 11:-0.00940768 12:-1 13:-1 14:-1 15:1 
-1 1:0.843271 2:0.834448 3:-0.64779 4:0.786812 5:-0.155444 6:-0.943098 7:-0.824713 8:-1 9:0.940084 10:-0.955496 11:-0.00940768 12:-1 13:-1 14:-1 15:1 
-1 1:0.630743 2:0.916295 3:-0.599325 4:0.99009 5:-0.199639 6:-0.963219 7:0.159821 8:-0.0320683 9:0.821373 10:-0.939343 11:-0.00940768 12:-1 13:-1 14:-1 15:1 
-1 1:0.788296 2:0.675053 3:-0.63389 4:0.969016 5:0.7306 6:-0.989443 7:-0.962192 8:-0.904316 9:0.582209 10:-0.925565 11:-0.00940768 12:-1 13:-1 14:-1 15:1 
-1 1:0.805737 2:0.963323 3:-0.103773 4:0.854213 5:-0.19228 6:-0.936588 7:-0.917326 8:-1 9:0.986292 10:-0.956859 11:-0.720323 12:-0.491787 13:0.946515 14:0.156835 15:-0.771893 
-1 1:0.938615 2:0.722028 3:-0.202194 4:0.736187 5:-0.722398 6:-0.947557 7:0.0362767 8:0.063616 9:-0.793256 10:-0.926322 11:-0.228288 12:0.119705 13:0.978339 14:0.0960708 15:-0.0767241 
-1 1:0.882674 2:0.90483 3:-0.634905 4:0.962568 5:0.751915 6:-0.984578 7:-0.959396 8:-0.869104 9:-0.953552 10:-0.964923 11:-0.00940768 12:-1 13:-1 14:-1 15:1 
-1 1:0.272999 2:0.929565 3:-0.598928 4:0.991881 5:-0.196792 6:-0.963746 7:0.146486 8:-0.0595087 9:0.15071 10:-0.927791 11:-0.00940768 12:-1 13:-1 14:-1 15:1 
-1 1:0.506224 2:0.756369 3:-0.204344 4:0.731053 5:-0.73848 6:-0.945688 7:0.0193952 8:0.071368 9:-0.774925 10:-0.92961 11:-0.258529 12:-0.435384 13:0.869167 14:0.0537509 15:0.109204 
-1 1:0.94836 2:0.781051 3:-0.0979958 4:0.860243 5:-0.250551 6:-0.936222 7:-0.91089 8:-1 9:0.98413 10:-0.955601 11:-0.709099 12:-0.467251 13:0.937544 14:0.260847 15:-0.776586 
-1 1:0.825127 2:1 3:-0.0754507 4:0.937494 5:0.459916 6:-0.99479 7:-0.979803 8:-0.91847 9:0.895757 10:-0.965639 11:-0.00940768 12:-1 13:-1 14:-1 15:1 
-1 1:0.628251 2:0.805732 3:-0.685076 4:0.890272 5:0.0524564 6:-0.992769 7:-0.961607 8:-0.993868 9:-0.157955 10:-0.975287 11:-0.00940768 12:-1 13:-1 14:-1 15:1 
